digraph Tree {
node [shape=box] ;
0 [label="X[6] <= 0.5\ngini = 0.452\nsamples = 420\nvalue = [435, 230]"] ;
1 [label="X[0] <= 2.5\ngini = 0.418\nsamples = 142\nvalue = [63, 149]"] ;
0 -> 1 [labeldistance=2.5, labelangle=45, headlabel="True"] ;
2 [label="X[1] <= 4.0\ngini = 0.135\nsamples = 76\nvalue = [8, 102]"] ;
1 -> 2 ;
3 [label="gini = 0.0\nsamples = 1\nvalue = [2, 0]"] ;
2 -> 3 ;
4 [label="X[3] <= 0.5\ngini = 0.105\nsamples = 75\nvalue = [6, 102]"] ;
2 -> 4 ;
5 [label="X[4] <= 29.356\ngini = 0.14\nsamples = 52\nvalue = [6, 73]"] ;
4 -> 5 ;
6 [label="X[0] <= 1.5\ngini = 0.278\nsamples = 24\nvalue = [6, 30]"] ;
5 -> 6 ;
7 [label="gini = 0.0\nsamples = 1\nvalue = [1, 0]"] ;
6 -> 7 ;
8 [label="X[1] <= 37.0\ngini = 0.245\nsamples = 23\nvalue = [5, 30]"] ;
6 -> 8 ;
9 [label="X[2] <= 0.5\ngini = 0.08\nsamples = 16\nvalue = [1, 23]"] ;
8 -> 9 ;
10 [label="X[1] <= 25.5\ngini = 0.1\nsamples = 11\nvalue = [1, 18]"] ;
9 -> 10 ;
11 [label="X[1] <= 21.5\ngini = 0.444\nsamples = 3\nvalue = [1, 2]"] ;
10 -> 11 ;
12 [label="gini = 0.0\nsamples = 2\nvalue = [0, 2]"] ;
11 -> 12 ;
13 [label="gini = 0.0\nsamples = 1\nvalue = [1, 0]"] ;
11 -> 13 ;
14 [label="gini = 0.0\nsamples = 8\nvalue = [0, 16]"] ;
10 -> 14 ;
15 [label="gini = 0.0\nsamples = 5\nvalue = [0, 5]"] ;
9 -> 15 ;
16 [label="X[4] <= 19.75\ngini = 0.463\nsamples = 7\nvalue = [4, 7]"] ;
8 -> 16 ;
17 [label="X[4] <= 13.25\ngini = 0.245\nsamples = 5\nvalue = [1, 6]"] ;
16 -> 17 ;
18 [label="X[1] <= 39.0\ngini = 0.375\nsamples = 4\nvalue = [1, 3]"] ;
17 -> 18 ;
19 [label="gini = 0.0\nsamples = 1\nvalue = [1, 0]"] ;
18 -> 19 ;
20 [label="gini = 0.0\nsamples = 3\nvalue = [0, 3]"] ;
18 -> 20 ;
21 [label="gini = 0.0\nsamples = 1\nvalue = [0, 3]"] ;
17 -> 21 ;
22 [label="X[1] <= 43.0\ngini = 0.375\nsamples = 2\nvalue = [3, 1]"] ;
16 -> 22 ;
23 [label="gini = 0.0\nsamples = 1\nvalue = [0, 1]"] ;
22 -> 23 ;
24 [label="gini = 0.0\nsamples = 1\nvalue = [3, 0]"] ;
22 -> 24 ;
25 [label="gini = 0.0\nsamples = 28\nvalue = [0, 43]"] ;
5 -> 25 ;
26 [label="gini = 0.0\nsamples = 23\nvalue = [0, 29]"] ;
4 -> 26 ;
27 [label="X[4] <= 7.988\ngini = 0.497\nsamples = 66\nvalue = [55, 47]"] ;
1 -> 27 ;
28 [label="X[1] <= 37.5\ngini = 0.444\nsamples = 25\nvalue = [14, 28]"] ;
27 -> 28 ;
29 [label="X[4] <= 7.562\ngini = 0.42\nsamples = 24\nvalue = [12, 28]"] ;
28 -> 29 ;
30 [label="gini = 0.0\nsamples = 4\nvalue = [0, 9]"] ;
29 -> 30 ;
31 [label="X[1] <= 21.5\ngini = 0.475\nsamples = 20\nvalue = [12, 19]"] ;
29 -> 31 ;
32 [label="X[1] <= 17.0\ngini = 0.49\nsamples = 7\nvalue = [8, 6]"] ;
31 -> 32 ;
33 [label="gini = 0.0\nsamples = 1\nvalue = [0, 2]"] ;
32 -> 33 ;
34 [label="X[4] <= 7.763\ngini = 0.444\nsamples = 6\nvalue = [8, 4]"] ;
32 -> 34 ;
35 [label="X[4] <= 7.681\ngini = 0.5\nsamples = 5\nvalue = [4, 4]"] ;
34 -> 35 ;
36 [label="gini = 0.0\nsamples = 1\nvalue = [2, 0]"] ;
35 -> 36 ;
37 [label="X[4] <= 7.742\ngini = 0.444\nsamples = 4\nvalue = [2, 4]"] ;
35 -> 37 ;
38 [label="gini = 0.0\nsamples = 1\nvalue = [0, 1]"] ;
37 -> 38 ;
39 [label="X[1] <= 20.5\ngini = 0.48\nsamples = 3\nvalue = [2, 3]"] ;
37 -> 39 ;
40 [label="gini = 0.0\nsamples = 1\nvalue = [0, 1]"] ;
39 -> 40 ;
41 [label="gini = 0.5\nsamples = 2\nvalue = [2, 2]"] ;
39 -> 41 ;
42 [label="gini = 0.0\nsamples = 1\nvalue = [4, 0]"] ;
34 -> 42 ;
43 [label="X[1] <= 27.5\ngini = 0.36\nsamples = 13\nvalue = [4, 13]"] ;
31 -> 43 ;
44 [label="X[4] <= 7.902\ngini = 0.153\nsamples = 9\nvalue = [1, 11]"] ;
43 -> 44 ;
45 [label="gini = 0.0\nsamples = 6\nvalue = [0, 9]"] ;
44 -> 45 ;
46 [label="X[1] <= 24.5\ngini = 0.444\nsamples = 3\nvalue = [1, 2]"] ;
44 -> 46 ;
47 [label="gini = 0.0\nsamples = 1\nvalue = [1, 0]"] ;
46 -> 47 ;
48 [label="gini = 0.0\nsamples = 2\nvalue = [0, 2]"] ;
46 -> 48 ;
49 [label="X[1] <= 30.75\ngini = 0.48\nsamples = 4\nvalue = [3, 2]"] ;
43 -> 49 ;
50 [label="gini = 0.0\nsamples = 2\nvalue = [2, 0]"] ;
49 -> 50 ;
51 [label="X[4] <= 7.821\ngini = 0.444\nsamples = 2\nvalue = [1, 2]"] ;
49 -> 51 ;
52 [label="gini = 0.0\nsamples = 1\nvalue = [0, 2]"] ;
51 -> 52 ;
53 [label="gini = 0.0\nsamples = 1\nvalue = [1, 0]"] ;
51 -> 53 ;
54 [label="gini = 0.0\nsamples = 1\nvalue = [2, 0]"] ;
28 -> 54 ;
55 [label="X[1] <= 1.5\ngini = 0.433\nsamples = 41\nvalue = [41, 19]"] ;
27 -> 55 ;
56 [label="gini = 0.0\nsamples = 2\nvalue = [0, 3]"] ;
55 -> 56 ;
57 [label="X[4] <= 11.967\ngini = 0.404\nsamples = 39\nvalue = [41, 16]"] ;
55 -> 57 ;
58 [label="X[1] <= 62.5\ngini = 0.091\nsamples = 13\nvalue = [20, 1]"] ;
57 -> 58 ;
59 [label="gini = 0.0\nsamples = 12\nvalue = [20, 0]"] ;
58 -> 59 ;
60 [label="gini = 0.0\nsamples = 1\nvalue = [0, 1]"] ;
58 -> 60 ;
61 [label="X[2] <= 1.5\ngini = 0.486\nsamples = 26\nvalue = [21, 15]"] ;
57 -> 61 ;
62 [label="X[2] <= 0.5\ngini = 0.476\nsamples = 17\nvalue = [9, 14]"] ;
61 -> 62 ;
63 [label="X[4] <= 21.55\ngini = 0.497\nsamples = 9\nvalue = [6, 7]"] ;
62 -> 63 ;
64 [label="X[1] <= 10.5\ngini = 0.408\nsamples = 6\nvalue = [5, 2]"] ;
63 -> 64 ;
65 [label="gini = 0.0\nsamples = 1\nvalue = [0, 1]"] ;
64 -> 65 ;
66 [label="X[1] <= 21.0\ngini = 0.278\nsamples = 5\nvalue = [5, 1]"] ;
64 -> 66 ;
67 [label="gini = 0.0\nsamples = 2\nvalue = [3, 0]"] ;
66 -> 67 ;
68 [label="X[3] <= 2.5\ngini = 0.444\nsamples = 3\nvalue = [2, 1]"] ;
66 -> 68 ;
69 [label="gini = 0.0\nsamples = 1\nvalue = [1, 0]"] ;
68 -> 69 ;
70 [label="X[1] <= 26.5\ngini = 0.5\nsamples = 2\nvalue = [1, 1]"] ;
68 -> 70 ;
71 [label="gini = 0.0\nsamples = 1\nvalue = [0, 1]"] ;
70 -> 71 ;
72 [label="gini = 0.0\nsamples = 1\nvalue = [1, 0]"] ;
70 -> 72 ;
73 [label="X[3] <= 3.5\ngini = 0.278\nsamples = 3\nvalue = [1, 5]"] ;
63 -> 73 ;
74 [label="gini = 0.0\nsamples = 2\nvalue = [0, 5]"] ;
73 -> 74 ;
75 [label="gini = 0.0\nsamples = 1\nvalue = [1, 0]"] ;
73 -> 75 ;
76 [label="X[3] <= 2.5\ngini = 0.42\nsamples = 8\nvalue = [3, 7]"] ;
62 -> 76 ;
77 [label="X[4] <= 14.977\ngini = 0.219\nsamples = 6\nvalue = [1, 7]"] ;
76 -> 77 ;
78 [label="X[1] <= 14.75\ngini = 0.5\nsamples = 2\nvalue = [1, 1]"] ;
77 -> 78 ;
79 [label="gini = 0.0\nsamples = 1\nvalue = [1, 0]"] ;
78 -> 79 ;
80 [label="gini = 0.0\nsamples = 1\nvalue = [0, 1]"] ;
78 -> 80 ;
81 [label="gini = 0.0\nsamples = 4\nvalue = [0, 6]"] ;
77 -> 81 ;
82 [label="gini = 0.0\nsamples = 2\nvalue = [2, 0]"] ;
76 -> 82 ;
83 [label="X[1] <= 5.5\ngini = 0.142\nsamples = 9\nvalue = [12, 1]"] ;
61 -> 83 ;
84 [label="X[2] <= 3.5\ngini = 0.32\nsamples = 3\nvalue = [4, 1]"] ;
83 -> 84 ;
85 [label="gini = 0.0\nsamples = 1\nvalue = [2, 0]"] ;
84 -> 85 ;
86 [label="X[4] <= 31.331\ngini = 0.444\nsamples = 2\nvalue = [2, 1]"] ;
84 -> 86 ;
87 [label="gini = 0.0\nsamples = 1\nvalue = [2, 0]"] ;
86 -> 87 ;
88 [label="gini = 0.0\nsamples = 1\nvalue = [0, 1]"] ;
86 -> 88 ;
89 [label="gini = 0.0\nsamples = 6\nvalue = [8, 0]"] ;
83 -> 89 ;
90 [label="X[3] <= 1.5\ngini = 0.294\nsamples = 278\nvalue = [372, 81]"] ;
0 -> 90 [labeldistance=2.5, labelangle=-45, headlabel="False"] ;
91 [label="X[4] <= 26.4\ngini = 0.275\nsamples = 264\nvalue = [360, 71]"] ;
90 -> 91 ;
92 [label="X[1] <= 4.5\ngini = 0.192\nsamples = 196\nvalue = [291, 35]"] ;
91 -> 92 ;
93 [label="X[2] <= 2.0\ngini = 0.48\nsamples = 4\nvalue = [2, 3]"] ;
92 -> 93 ;
94 [label="gini = 0.0\nsamples = 3\nvalue = [0, 3]"] ;
93 -> 94 ;
95 [label="gini = 0.0\nsamples = 1\nvalue = [2, 0]"] ;
93 -> 95 ;
96 [label="X[4] <= 19.5\ngini = 0.18\nsamples = 192\nvalue = [289, 32]"] ;
92 -> 96 ;
97 [label="X[3] <= 0.5\ngini = 0.202\nsamples = 172\nvalue = [249, 32]"] ;
96 -> 97 ;
98 [label="X[1] <= 14.0\ngini = 0.189\nsamples = 169\nvalue = [246, 29]"] ;
97 -> 98 ;
99 [label="X[1] <= 11.5\ngini = 0.48\nsamples = 2\nvalue = [3, 2]"] ;
98 -> 99 ;
100 [label="gini = 0.0\nsamples = 1\nvalue = [3, 0]"] ;
99 -> 100 ;
101 [label="gini = 0.0\nsamples = 1\nvalue = [0, 2]"] ;
99 -> 101 ;
102 [label="X[1] <= 44.5\ngini = 0.18\nsamples = 167\nvalue = [243, 27]"] ;
98 -> 102 ;
103 [label="X[2] <= 0.5\ngini = 0.198\nsamples = 151\nvalue = [216, 27]"] ;
102 -> 103 ;
104 [label="X[4] <= 17.444\ngini = 0.185\nsamples = 134\nvalue = [191, 22]"] ;
103 -> 104 ;
105 [label="X[0] <= 1.5\ngini = 0.172\nsamples = 133\nvalue = [191, 20]"] ;
104 -> 105 ;
106 [label="gini = 0.0\nsamples = 2\nvalue = [2, 0]"] ;
105 -> 106 ;
107 [label="X[1] <= 41.5\ngini = 0.173\nsamples = 131\nvalue = [189, 20]"] ;
105 -> 107 ;
108 [label="X[4] <= 8.135\ngini = 0.147\nsamples = 125\nvalue = [184, 16]"] ;
107 -> 108 ;
109 [label="X[4] <= 8.081\ngini = 0.188\nsamples = 85\nvalue = [119, 14]"] ;
108 -> 109 ;
110 [label="X[4] <= 7.175\ngini = 0.178\nsamples = 84\nvalue = [119, 13]"] ;
109 -> 110 ;
111 [label="gini = 0.0\nsamples = 16\nvalue = [26, 0]"] ;
110 -> 111 ;
112 [label="X[4] <= 7.798\ngini = 0.215\nsamples = 68\nvalue = [93, 13]"] ;
110 -> 112 ;
113 [label="X[1] <= 19.5\ngini = 0.27\nsamples = 38\nvalue = [47, 9]"] ;
112 -> 113 ;
114 [label="gini = 0.0\nsamples = 6\nvalue = [10, 0]"] ;
113 -> 114 ;
115 [label="X[4] <= 7.763\ngini = 0.315\nsamples = 32\nvalue = [37, 9]"] ;
113 -> 115 ;
116 [label="X[4] <= 7.24\ngini = 0.198\nsamples = 25\nvalue = [32, 4]"] ;
115 -> 116 ;
117 [label="X[1] <= 22.75\ngini = 0.355\nsamples = 10\nvalue = [10, 3]"] ;
116 -> 117 ;
118 [label="gini = 0.0\nsamples = 2\nvalue = [0, 3]"] ;
117 -> 118 ;
119 [label="gini = 0.0\nsamples = 8\nvalue = [10, 0]"] ;
117 -> 119 ;
120 [label="X[4] <= 7.746\ngini = 0.083\nsamples = 15\nvalue = [22, 1]"] ;
116 -> 120 ;
121 [label="gini = 0.0\nsamples = 10\nvalue = [17, 0]"] ;
120 -> 121 ;
122 [label="X[1] <= 24.5\ngini = 0.278\nsamples = 5\nvalue = [5, 1]"] ;
120 -> 122 ;
123 [label="gini = 0.0\nsamples = 2\nvalue = [3, 0]"] ;
122 -> 123 ;
124 [label="X[1] <= 29.5\ngini = 0.444\nsamples = 3\nvalue = [2, 1]"] ;
122 -> 124 ;
125 [label="gini = 0.0\nsamples = 1\nvalue = [0, 1]"] ;
124 -> 125 ;
126 [label="gini = 0.0\nsamples = 2\nvalue = [2, 0]"] ;
124 -> 126 ;
127 [label="X[1] <= 21.5\ngini = 0.5\nsamples = 7\nvalue = [5, 5]"] ;
115 -> 127 ;
128 [label="X[4] <= 7.785\ngini = 0.375\nsamples = 2\nvalue = [1, 3]"] ;
127 -> 128 ;
129 [label="gini = 0.0\nsamples = 1\nvalue = [1, 0]"] ;
128 -> 129 ;
130 [label="gini = 0.0\nsamples = 1\nvalue = [0, 3]"] ;
128 -> 130 ;
131 [label="X[4] <= 7.785\ngini = 0.444\nsamples = 5\nvalue = [4, 2]"] ;
127 -> 131 ;
132 [label="X[1] <= 30.0\ngini = 0.5\nsamples = 3\nvalue = [2, 2]"] ;
131 -> 132 ;
133 [label="gini = 0.444\nsamples = 2\nvalue = [1, 2]"] ;
132 -> 133 ;
134 [label="gini = 0.0\nsamples = 1\nvalue = [1, 0]"] ;
132 -> 134 ;
135 [label="gini = 0.0\nsamples = 2\nvalue = [2, 0]"] ;
131 -> 135 ;
136 [label="X[1] <= 37.0\ngini = 0.147\nsamples = 30\nvalue = [46, 4]"] ;
112 -> 136 ;
137 [label="X[4] <= 7.988\ngini = 0.08\nsamples = 29\nvalue = [46, 2]"] ;
136 -> 137 ;
138 [label="gini = 0.0\nsamples = 17\nvalue = [31, 0]"] ;
137 -> 138 ;
139 [label="X[1] <= 19.5\ngini = 0.208\nsamples = 12\nvalue = [15, 2]"] ;
137 -> 139 ;
140 [label="gini = 0.5\nsamples = 2\nvalue = [1, 1]"] ;
139 -> 140 ;
141 [label="X[1] <= 31.25\ngini = 0.124\nsamples = 10\nvalue = [14, 1]"] ;
139 -> 141 ;
142 [label="gini = 0.0\nsamples = 7\nvalue = [11, 0]"] ;
141 -> 142 ;
143 [label="X[1] <= 33.0\ngini = 0.375\nsamples = 3\nvalue = [3, 1]"] ;
141 -> 143 ;
144 [label="gini = 0.0\nsamples = 1\nvalue = [0, 1]"] ;
143 -> 144 ;
145 [label="gini = 0.0\nsamples = 2\nvalue = [3, 0]"] ;
143 -> 145 ;
146 [label="gini = 0.0\nsamples = 1\nvalue = [0, 2]"] ;
136 -> 146 ;
147 [label="gini = 0.0\nsamples = 1\nvalue = [0, 1]"] ;
109 -> 147 ;
148 [label="X[0] <= 2.5\ngini = 0.058\nsamples = 40\nvalue = [65, 2]"] ;
108 -> 148 ;
149 [label="X[1] <= 33.0\ngini = 0.067\nsamples = 20\nvalue = [28, 1]"] ;
148 -> 149 ;
150 [label="gini = 0.0\nsamples = 16\nvalue = [24, 0]"] ;
149 -> 150 ;
151 [label="X[1] <= 35.0\ngini = 0.32\nsamples = 4\nvalue = [4, 1]"] ;
149 -> 151 ;
152 [label="gini = 0.0\nsamples = 1\nvalue = [0, 1]"] ;
151 -> 152 ;
153 [label="gini = 0.0\nsamples = 3\nvalue = [4, 0]"] ;
151 -> 153 ;
154 [label="X[4] <= 9.425\ngini = 0.051\nsamples = 20\nvalue = [37, 1]"] ;
148 -> 154 ;
155 [label="gini = 0.0\nsamples = 9\nvalue = [15, 0]"] ;
154 -> 155 ;
156 [label="X[1] <= 28.75\ngini = 0.083\nsamples = 11\nvalue = [22, 1]"] ;
154 -> 156 ;
157 [label="gini = 0.0\nsamples = 9\nvalue = [18, 0]"] ;
156 -> 157 ;
158 [label="X[1] <= 31.0\ngini = 0.32\nsamples = 2\nvalue = [4, 1]"] ;
156 -> 158 ;
159 [label="gini = 0.0\nsamples = 1\nvalue = [0, 1]"] ;
158 -> 159 ;
160 [label="gini = 0.0\nsamples = 1\nvalue = [4, 0]"] ;
158 -> 160 ;
161 [label="X[4] <= 10.525\ngini = 0.494\nsamples = 6\nvalue = [5, 4]"] ;
107 -> 161 ;
162 [label="X[1] <= 43.5\ngini = 0.32\nsamples = 4\nvalue = [4, 1]"] ;
161 -> 162 ;
163 [label="gini = 0.0\nsamples = 2\nvalue = [3, 0]"] ;
162 -> 163 ;
164 [label="X[4] <= 7.988\ngini = 0.5\nsamples = 2\nvalue = [1, 1]"] ;
162 -> 164 ;
165 [label="gini = 0.0\nsamples = 1\nvalue = [0, 1]"] ;
164 -> 165 ;
166 [label="gini = 0.0\nsamples = 1\nvalue = [1, 0]"] ;
164 -> 166 ;
167 [label="gini = 0.375\nsamples = 2\nvalue = [1, 3]"] ;
161 -> 167 ;
168 [label="gini = 0.0\nsamples = 1\nvalue = [0, 2]"] ;
104 -> 168 ;
169 [label="X[1] <= 25.5\ngini = 0.278\nsamples = 17\nvalue = [25, 5]"] ;
103 -> 169 ;
170 [label="X[1] <= 24.5\ngini = 0.444\nsamples = 8\nvalue = [10, 5]"] ;
169 -> 170 ;
171 [label="X[4] <= 11.713\ngini = 0.298\nsamples = 6\nvalue = [9, 2]"] ;
170 -> 171 ;
172 [label="X[1] <= 18.5\ngini = 0.48\nsamples = 3\nvalue = [3, 2]"] ;
171 -> 172 ;
173 [label="gini = 0.0\nsamples = 1\nvalue = [2, 0]"] ;
172 -> 173 ;
174 [label="X[4] <= 7.838\ngini = 0.444\nsamples = 2\nvalue = [1, 2]"] ;
172 -> 174 ;
175 [label="gini = 0.0\nsamples = 1\nvalue = [1, 0]"] ;
174 -> 175 ;
176 [label="gini = 0.0\nsamples = 1\nvalue = [0, 2]"] ;
174 -> 176 ;
177 [label="gini = 0.0\nsamples = 3\nvalue = [6, 0]"] ;
171 -> 177 ;
178 [label="X[4] <= 12.787\ngini = 0.375\nsamples = 2\nvalue = [1, 3]"] ;
170 -> 178 ;
179 [label="gini = 0.0\nsamples = 1\nvalue = [0, 3]"] ;
178 -> 179 ;
180 [label="gini = 0.0\nsamples = 1\nvalue = [1, 0]"] ;
178 -> 180 ;
181 [label="gini = 0.0\nsamples = 9\nvalue = [15, 0]"] ;
169 -> 181 ;
182 [label="gini = 0.0\nsamples = 16\nvalue = [27, 0]"] ;
102 -> 182 ;
183 [label="X[4] <= 11.798\ngini = 0.5\nsamples = 3\nvalue = [3, 3]"] ;
97 -> 183 ;
184 [label="gini = 0.0\nsamples = 2\nvalue = [3, 0]"] ;
183 -> 184 ;
185 [label="gini = 0.0\nsamples = 1\nvalue = [0, 3]"] ;
183 -> 185 ;
186 [label="gini = 0.0\nsamples = 20\nvalue = [40, 0]"] ;
96 -> 186 ;
187 [label="X[1] <= 22.5\ngini = 0.451\nsamples = 68\nvalue = [69, 36]"] ;
91 -> 187 ;
188 [label="gini = 0.0\nsamples = 8\nvalue = [15, 0]"] ;
187 -> 188 ;
189 [label="X[2] <= 1.5\ngini = 0.48\nsamples = 60\nvalue = [54, 36]"] ;
187 -> 189 ;
190 [label="X[3] <= 0.5\ngini = 0.485\nsamples = 58\nvalue = [51, 36]"] ;
189 -> 190 ;
191 [label="X[4] <= 30.598\ngini = 0.484\nsamples = 51\nvalue = [46, 32]"] ;
190 -> 191 ;
192 [label="X[2] <= 0.5\ngini = 0.498\nsamples = 22\nvalue = [15, 17]"] ;
191 -> 192 ;
193 [label="X[4] <= 28.71\ngini = 0.477\nsamples = 19\nvalue = [11, 17]"] ;
192 -> 193 ;
194 [label="X[4] <= 27.135\ngini = 0.5\nsamples = 12\nvalue = [10, 10]"] ;
193 -> 194 ;
195 [label="X[1] <= 53.5\ngini = 0.484\nsamples = 10\nvalue = [7, 10]"] ;
194 -> 195 ;
196 [label="X[1] <= 39.0\ngini = 0.165\nsamples = 6\nvalue = [1, 10]"] ;
195 -> 196 ;
197 [label="gini = 0.0\nsamples = 3\nvalue = [0, 6]"] ;
196 -> 197 ;
198 [label="X[1] <= 43.0\ngini = 0.32\nsamples = 3\nvalue = [1, 4]"] ;
196 -> 198 ;
199 [label="gini = 0.0\nsamples = 1\nvalue = [1, 0]"] ;
198 -> 199 ;
200 [label="gini = 0.0\nsamples = 2\nvalue = [0, 4]"] ;
198 -> 200 ;
201 [label="gini = 0.0\nsamples = 4\nvalue = [6, 0]"] ;
195 -> 201 ;
202 [label="gini = 0.0\nsamples = 2\nvalue = [3, 0]"] ;
194 -> 202 ;
203 [label="X[1] <= 28.0\ngini = 0.219\nsamples = 7\nvalue = [1, 7]"] ;
193 -> 203 ;
204 [label="gini = 0.0\nsamples = 2\nvalue = [0, 3]"] ;
203 -> 204 ;
205 [label="X[4] <= 29.85\ngini = 0.32\nsamples = 5\nvalue = [1, 4]"] ;
203 -> 205 ;
206 [label="gini = 0.0\nsamples = 1\nvalue = [0, 1]"] ;
205 -> 206 ;
207 [label="X[1] <= 37.0\ngini = 0.375\nsamples = 4\nvalue = [1, 3]"] ;
205 -> 207 ;
208 [label="gini = 0.0\nsamples = 1\nvalue = [1, 0]"] ;
207 -> 208 ;
209 [label="gini = 0.0\nsamples = 3\nvalue = [0, 3]"] ;
207 -> 209 ;
210 [label="gini = 0.0\nsamples = 3\nvalue = [4, 0]"] ;
192 -> 210 ;
211 [label="X[1] <= 42.5\ngini = 0.44\nsamples = 29\nvalue = [31, 15]"] ;
191 -> 211 ;
212 [label="X[1] <= 31.5\ngini = 0.494\nsamples = 18\nvalue = [15, 12]"] ;
211 -> 212 ;
213 [label="X[1] <= 26.5\ngini = 0.391\nsamples = 8\nvalue = [11, 4]"] ;
212 -> 213 ;
214 [label="gini = 0.0\nsamples = 1\nvalue = [0, 1]"] ;
213 -> 214 ;
215 [label="X[4] <= 54.5\ngini = 0.337\nsamples = 7\nvalue = [11, 3]"] ;
213 -> 215 ;
216 [label="X[2] <= 0.5\ngini = 0.18\nsamples = 5\nvalue = [9, 1]"] ;
215 -> 216 ;
217 [label="X[1] <= 29.5\ngini = 0.245\nsamples = 4\nvalue = [6, 1]"] ;
216 -> 217 ;
218 [label="X[4] <= 33.25\ngini = 0.444\nsamples = 3\nvalue = [2, 1]"] ;
217 -> 218 ;
219 [label="gini = 0.0\nsamples = 1\nvalue = [1, 0]"] ;
218 -> 219 ;
220 [label="X[4] <= 41.3\ngini = 0.5\nsamples = 2\nvalue = [1, 1]"] ;
218 -> 220 ;
221 [label="gini = 0.0\nsamples = 1\nvalue = [0, 1]"] ;
220 -> 221 ;
222 [label="gini = 0.0\nsamples = 1\nvalue = [1, 0]"] ;
220 -> 222 ;
223 [label="gini = 0.0\nsamples = 1\nvalue = [4, 0]"] ;
217 -> 223 ;
224 [label="gini = 0.0\nsamples = 1\nvalue = [3, 0]"] ;
216 -> 224 ;
225 [label="X[1] <= 30.0\ngini = 0.5\nsamples = 2\nvalue = [2, 2]"] ;
215 -> 225 ;
226 [label="gini = 0.0\nsamples = 1\nvalue = [2, 0]"] ;
225 -> 226 ;
227 [label="gini = 0.0\nsamples = 1\nvalue = [0, 2]"] ;
225 -> 227 ;
228 [label="X[4] <= 67.673\ngini = 0.444\nsamples = 10\nvalue = [4, 8]"] ;
212 -> 228 ;
229 [label="X[0] <= 2.0\ngini = 0.346\nsamples = 8\nvalue = [2, 7]"] ;
228 -> 229 ;
230 [label="X[1] <= 39.5\ngini = 0.48\nsamples = 4\nvalue = [2, 3]"] ;
229 -> 230 ;
231 [label="gini = 0.0\nsamples = 2\nvalue = [2, 0]"] ;
230 -> 231 ;
232 [label="gini = 0.0\nsamples = 2\nvalue = [0, 3]"] ;
230 -> 232 ;
233 [label="gini = 0.0\nsamples = 4\nvalue = [0, 4]"] ;
229 -> 233 ;
234 [label="X[4] <= 84.425\ngini = 0.444\nsamples = 2\nvalue = [2, 1]"] ;
228 -> 234 ;
235 [label="gini = 0.0\nsamples = 1\nvalue = [2, 0]"] ;
234 -> 235 ;
236 [label="gini = 0.0\nsamples = 1\nvalue = [0, 1]"] ;
234 -> 236 ;
237 [label="X[2] <= 0.5\ngini = 0.266\nsamples = 11\nvalue = [16, 3]"] ;
211 -> 237 ;
238 [label="gini = 0.0\nsamples = 7\nvalue = [13, 0]"] ;
237 -> 238 ;
239 [label="X[1] <= 46.5\ngini = 0.5\nsamples = 4\nvalue = [3, 3]"] ;
237 -> 239 ;
240 [label="gini = 0.0\nsamples = 1\nvalue = [2, 0]"] ;
239 -> 240 ;
241 [label="X[1] <= 49.5\ngini = 0.375\nsamples = 3\nvalue = [1, 3]"] ;
239 -> 241 ;
242 [label="gini = 0.0\nsamples = 2\nvalue = [0, 3]"] ;
241 -> 242 ;
243 [label="gini = 0.0\nsamples = 1\nvalue = [1, 0]"] ;
241 -> 243 ;
244 [label="X[2] <= 0.5\ngini = 0.494\nsamples = 7\nvalue = [5, 4]"] ;
190 -> 244 ;
245 [label="X[4] <= 62.669\ngini = 0.49\nsamples = 5\nvalue = [3, 4]"] ;
244 -> 245 ;
246 [label="gini = 0.0\nsamples = 2\nvalue = [2, 0]"] ;
245 -> 246 ;
247 [label="X[1] <= 37.0\ngini = 0.32\nsamples = 3\nvalue = [1, 4]"] ;
245 -> 247 ;
248 [label="gini = 0.0\nsamples = 2\nvalue = [0, 4]"] ;
247 -> 248 ;
249 [label="gini = 0.0\nsamples = 1\nvalue = [1, 0]"] ;
247 -> 249 ;
250 [label="gini = 0.0\nsamples = 2\nvalue = [2, 0]"] ;
244 -> 250 ;
251 [label="gini = 0.0\nsamples = 2\nvalue = [3, 0]"] ;
189 -> 251 ;
252 [label="X[1] <= 3.5\ngini = 0.496\nsamples = 14\nvalue = [12, 10]"] ;
90 -> 252 ;
253 [label="gini = 0.0\nsamples = 3\nvalue = [0, 6]"] ;
252 -> 253 ;
254 [label="X[0] <= 2.0\ngini = 0.375\nsamples = 11\nvalue = [12, 4]"] ;
252 -> 254 ;
255 [label="X[1] <= 22.0\ngini = 0.494\nsamples = 4\nvalue = [5, 4]"] ;
254 -> 255 ;
256 [label="gini = 0.0\nsamples = 2\nvalue = [0, 4]"] ;
255 -> 256 ;
257 [label="gini = 0.0\nsamples = 2\nvalue = [5, 0]"] ;
255 -> 257 ;
258 [label="gini = 0.0\nsamples = 7\nvalue = [7, 0]"] ;
254 -> 258 ;
}